solver_type L2R_L2LOSS_SVC_DUAL
nr_class 2
label 1 -1
nr_feature 1000
bias -1
w
0.8831337480443681 
-0.2027191024324452 
0.2225283759996521 
0.1944272912020984 
0.03258633614479984 
1.188963143810585 
-0.2414865195278799 
-0.1779789980870073 
0.1841091732208983 
0.4735959243504969 
1.607370408518271 
-1.496163102941273 
-0.2502907625749221 
0.07397041244487439 
-0.1211747702921152 
-0.5798867433527137 
0.5639253099780402 
-0.3342268467328419 
-0.4622856407758428 
0.1776092483489629 
-0.1752136292113293 
1.374395591522253 
-0.2507133537536727 
0.04824420934892001 
0.1345210659765572 
-0.1194611386424965 
-2.68642484696996 
0.2673174778640086 
-0.1377002233142011 
-0.6708327115546824 
2.491575672448433 
-0.1067271795220269 
2.297721699039308 
1.739322633858184 
0.7980834414957128 
-0.958501119481151 
-0.6625909086722311 
-0.2668847421840023 
0.06106054653316452 
-0.5233970353956322 
2.012076650490827 
-0.6970732485036749 
-2.600893484207406 
1.058638730229167 
-0.6515060024307113 
2.763730064209619 
-0.2732251116074754 
2.47599696934276 
-0.4827683402570875 
2.13186311892367 
1.813172251567689 
2.40807943535839 
0.5455241876456695 
0.1845996285961681 
3.086237353570862 
-0.2436529118369653 
1.03207582421651 
-0.2482259868458011 
-0.7086413067127322 
0.9905369692535886 
1.120155476747942 
0.4710058769437045 
3.004645104317925 
-0.3238799945980846 
3.454092658554399 
-0.6147172026634501 
-2.003445353665868 
-0.1083167876764656 
0.0622412654235898 
-2.662971366730639 
0.5473838407420981 
1.334767497089702 
2.981935925583351 
-1.751776519024298 
-0.3673333489111945 
-3.382894644792495 
-0.3194181406712129 
1.001689523898221 
-1.468782677774728 
3.97672378725813 
-0.6916549719842787 
0.5798707515640965 
-2.727638962794891 
1.789006641753618 
0.4362573705748251 
-1.23431132634436 
-0.7791928117840308 
-3.933953570807253 
0.6684066173304902 
-3.454053806788596 
-0.5443679092909505 
0.5676490021778949 
-0.2448252501468443 
3.995522931365775 
-0.7758368936537693 
0.831753670457277 
4.097093986150602 
-0.8458211815612611 
-0.4153879693177597 
-1.062606500013983 
-1.165286248767833 
-1.419338451375404 
-1.572360582377568 
-2.12537323383411 
-2.70863762072662 
0.1664492600939563 
1.821780118578673 
4.272433274674246 
5.228004491926661 
3.617410165615356 
0.7922273493552967 
-5.294052330731539 
0.7517847343685788 
0.1523435904617407 
4.764323446321781 
-1.516883168552269 
0.272340734611846 
-4.859124499992989 
4.926765047837784 
-1.253708065104267 
-2.13104777009574 
0 
-3.100114242051185 
-0.2218058434277497 
-5.100661834204637 
-1.372162920849689 
-1.682905767030165 
-3.829437967835323 
-0.007904486115615974 
-0.1429521768910302 
-1.886296038382161 
3.394238247596636 
0.7306243782186587 
1.703128654017622 
-0.7675025535068852 
1.11520622249501 
-0.645069474103671 
-1.612099537872395 
0.4354633459052773 
-0.6834524306090622 
-1.554849819006561 
0.8655394647433282 
2.341402580255793 
-2.519017542940468 
-1.687567264930532 
-2.14807424980452 
3.716297809824508 
-3.228755698402967 
-0.5082347352189356 
-0.7821907424555775 
-7.501724219245354 
-1.979415553448014 
-4.187859694490822 
-3.306064668963447 
5.344463803125593 
-0.4354767901003301 
1.20714647321739 
0.5706145016419748 
-0.8251691398850486 
1.201866696129376 
5.532262715361551 
1.299126499366129 
1.622564767355495 
6.595782602694992 
-4.893771593089243 
-1.508604867977909 
-1.566542757013344 
-0.7182667608160967 
2.791904045216671 
-0.6243353330522095 
-0.6574131440628473 
6.098605678287166 
-5.976922796504819 
-3.136690822121496 
-1.374979603612188 
6.082946560792886 
-2.400625289237251 
-5.948828716513414 
5.852505720013775 
0.6641633487895766 
7.138669092349827 
4.683020643924604 
-2.639550283759851 
-5.826285624253688 
-2.105999955061785 
-2.754924387693811 
2.78062207868443 
-1.807028123221024 
6.269284618654791 
-5.484386456130389 
-2.049794621219565 
-1.855211872114834 
0.8030453877490643 
-2.794299360658787 
-0.7783161454366188 
6.853722179991255 
-0.3699522830367025 
0 
4.247916779586808 
-0.5399370097604614 
1.910168412695277 
6.575031801731751 
3.618898560782266 
5.887326286050434 
1.206440439188188 
-2.087041050672228 
2.611880696920646 
-3.760843715576586 
-7.706115767423274 
-0.8632803040528225 
-7.076023957523045 
-3.475111178973363 
-2.711280284723255 
-2.360164081451881 
-5.146689429194867 
1.362334434853346 
-1.209309195126619 
1.896834867301831 
2.304756517839469 
0.05940261671873517 
4.575349427608364 
-2.040957676428995 
6.576839851432787 
2.585675977311946 
4.688030358905184 
-3.138588601711576 
-4.437728604717528 
-3.875720182739563 
-1.692227887047786 
0.2323106377989716 
3.996336726417178 
-8.392328172887122 
-7.584213202653926 
3.514941287260764 
7.257487749527098 
-3.871159700715161 
0.2198191832069826 
-0.8522900870326474 
-4.742925647549918 
-1.592995580790208 
-0.4770037216236113 
6.767943967423204 
-3.531608081580818 
7.462555811789465 
-4.429120779643075 
-0.3948786350665129 
-1.732998343971359 
-2.586627128215674 
0.7949180060220902 
-3.409768798631891 
-0.757640557887317 
-2.220856227576558 
-2.344504464555278 
0.1851331298912711 
4.993741795235643 
-0.6314355798789439 
-1.665771173295441 
2.927743195229931 
0.261354870498598 
-2.065340370561405 
-6.422862728603482 
-2.757348167999076 
-0.6544672007433807 
1.068815718878113 
-0.4147981421872099 
2.12336129976135 
3.09552659153435 
-2.333145016813132 
-2.224557270372173 
4.925310623008987 
0.4495718989990058 
-2.232364980743031 
-2.778401853884531 
0.8129461471653655 
-1.812509398502035 
-0.04277702034918199 
-0.5996651871853154 
-1.530018235509027 
-1.646540786489995 
-0.1261450124521714 
-0.1970306197903364 
-0.1629963204695248 
4.688499344650846 
0 
-1.010374270070379 
4.599636704287647 
0 
-6.446855594821993 
-1.747339352238304 
0.8690780801208308 
0 
0.2736739856337681 
0.4006419239664555 
-2.656114020144531 
0 
0.7653971479374352 
0 
0 
0 
-3.31763083737534 
0 
0 
-4.775828611851851 
-5.07661202416319 
3.448854453551362 
1.477759118443171 
2.324216468168407 
3.368089124828697 
-3.564358730516014 
-1.148508072353532 
0.3598056497602504 
6.459008189578761 
-3.599695380133001 
1.159129314807002 
-1.072119204349565 
-3.322540973509235 
-2.786160244668146 
-1.685894259769965 
-1.221045098288177 
-4.473002618398592 
-1.276968041504016 
-2.092619670248142 
-2.077475102319321 
6.703468667946966 
8.047618364930216 
-1.820443572088047 
2.202733720934837 
0.8211337383743968 
0.3942436412267799 
-0.3193412036293124 
1.568445178135541 
-1.823267652724864 
3.147900714849952 
-8.867576677870925 
7.221681887872373 
3.011877320293793 
-0.59741490617522 
-0.4504755642970404 
3.519411009373482 
4.21223139407253 
-2.215378766071047 
-3.98179011520313 
-0.7276660988154642 
0.8182836876602904 
0.6719991343202938 
2.992852807352758 
-3.888789248520996 
-6.121479707649639 
1.978726040254579 
4.372939507453323 
2.333902413372439 
-2.04203547878063 
-2.046209849545599 
-5.033709913207026 
7.20351370764756 
-3.330728428783512 
-2.14154954221855 
-3.379655191017634 
-5.461354467430294 
6.419904135716523 
0.7804711593548153 
8.556582268349446 
-2.291269115595757 
-1.739802569683079 
0 
0.5018154841391763 
0.6825428657358262 
-2.585227139563838 
-6.458973376885334 
-3.797729414787823 
-1.938444443424546 
-1.610620628867614 
-1.458981049851001 
-3.678264951611018 
4.892674161108226 
-3.058481841263292 
-2.64987008539847 
5.244221371496811 
0.3223285583254105 
-4.613887350118518 
-2.869463157597634 
-3.545114588997228 
5.811985820530703 
7.313097420002611 
0.4631989101164163 
0.07673817160107421 
-5.369109787351953 
-2.460881113473655 
-2.819718333904121 
-0.9329561733902038 
-2.300053696617335 
8.07376657291857 
-0.6134519673286434 
-1.890968539099659 
0 
1.905665397375588 
2.246798841142952 
-0.9462371782417945 
-2.254543992284285 
0.7497471958216506 
4.213077879603943 
-0.2458392100013579 
-0.9473932440373407 
2.121597533745236 
-0.6897915520023831 
-3.670668328984871 
-1.234342381717694 
7.427185985732844 
-1.697062435841499 
1.681554106061373 
2.097065594867797 
-2.330355654470511 
-0.5633429621047346 
-0.3622207138234776 
-0.585388496152337 
-0.5712177183466898 
-2.271341512354258 
5.455964297260882 
1.540682885221255 
6.531341912264647 
-0.9579044068295155 
1.537509163521619 
0.2830874242551206 
0.1689519770738137 
-3.72021059279259 
-4.511524293408167 
-4.585302027209851 
-1.158849048956828 
-0.9803967850213491 
-0.6239801504724978 
-4.180619442711547 
-1.877804070821227 
-1.828001145768839 
0 
-2.123809949543418 
0.9529276094539295 
4.536993713534684 
-3.698518291634826 
-3.856162877951879 
0.7088688921118409 
3.724075824865492 
1.820205343637236 
2.146416338437558 
-3.331244082228038 
-1.057015602225486 
1.222629768919999 
4.13138325893777 
5.951815043201351 
0.04861602798970285 
1.618217926835613 
-2.294712202041074 
-2.759013371635146 
4.374277155772683 
0.4067843936723327 
0.03009449671129253 
1.271135336929667 
-3.581559022743141 
-1.724807637821 
4.091014827206592 
0 
-0.9833888399181751 
-6.222343998556463 
0.1237922778695646 
3.309001650861989 
2.123017286466292 
2.314457128152475 
2.356719848688169 
-4.753512968185022 
0.1669018960430814 
-1.792531943214566 
-0.8757174657349616 
-1.98466020759074 
-0.2325819888891162 
-5.344684090932383 
-0.3164807346000421 
0.8602240774960844 
0.0001856943451041763 
1.427387226216675 
-0.2210205344414073 
-4.210233684700793 
7.47116326042536 
-1.768583100944632 
0.1714176291670394 
-1.487373016775458 
3.550324984846707 
4.806028716551994 
-1.497917024373864 
1.671992639360633 
1.633800438066616 
-1.631416657391251 
-0.1467699496843722 
-1.52417625569957 
-4.804336629757328 
-3.493655460404774 
2.10159673596192 
3.280391471715976 
5.835603695015426 
0.5094306974182814 
-4.063514521751734 
-2.642151405587641 
0 
-3.816941616754665 
-4.250778481707336 
-1.155643032702972 
1.166656695806422 
1.279353754976609 
-0.6681402734115354 
4.135581044848286 
-0.5436239311879606 
0.7706194005537056 
5.391161037755929 
5.581381848077996 
-0.1222137635123817 
2.577826129081471 
-0.5139385413605282 
1.11337467313012 
-2.868187204764176 
0.1974647806526935 
-1.540707698103116 
-1.357144522055253 
0.3957431206790518 
0.9791595434139861 
0.2104855011827446 
-0.08537658329959653 
-1.094384344740406 
-0.7413092254156328 
1.996603754755019 
0.9630614584117015 
2.405533950086978 
2.590704104584629 
1.835283609792385 
0.6857184395920165 
0.5599759453778387 
-1.09266219586679 
-0.417481531657003 
0 
-1.150187647260783 
-2.828796802737164 
-0.6240646662053061 
-2.219155159068124 
1.930887608613091 
-0.4922216558384081 
-2.174035898270856 
-0.9214963393379534 
-1.062803553236369 
-4.003750756483342 
-0.853625616452057 
1.044671988064895 
-2.560443660160082 
-2.771989194156987 
5.553534829239741 
-1.642061623219744 
-2.676883630854694 
-1.964763009673303 
-2.50087662234145 
-2.287432554307844 
-0.1028976932833743 
0.4476597114669834 
-0.6415368414681379 
1.647672829952168 
-0.009189939601810238 
2.899243915249528 
2.62813629814083 
-0.5984898082949113 
0.1169981878777309 
-1.390123550929845 
0 
5.949250651497403 
-0.946743749191705 
-2.274435964785031 
-6.577320058510486 
-5.39779908688592 
-0.947561602816852 
-1.242018296142618 
7.016676664807506 
-3.51482099235105 
-1.704102660157242 
-1.066343131965848 
-4.261448299490806 
-0.653585355337613 
0.4810132147109427 
-2.128475709738316 
-1.171939872458614 
3.026909690163743 
1.199220553262025 
-0.5563719699751056 
0.2866037749560634 
-0.9412205737449256 
-1.496098247987554 
-1.292857130826508 
0 
-1.181173111811118 
6.87989003549223 
1.028574583930987 
-0.7723515461081937 
2.565863967939005 
-0.1295369957323484 
-0.2519453632498814 
0.401840327980434 
3.797316345987491 
-2.022549253726873 
0.3961401322428423 
-0.8537485426593859 
-1.105589180546822 
-0.5209335687766976 
-2.413111098951767 
-1.81200349406422 
0.5267633822834873 
-2.115944071145663 
0.07884343604297611 
-1.468815354689639 
-1.532982676540947 
2.840556403051777 
0.42706627276853 
-2.19964755971787 
-2.760213192404039 
-0.04388821770251704 
-1.597652991946101 
-2.099075430764603 
-0.1754195570079518 
3.099289139319117 
-0.3606480116195385 
0.6595558298464548 
3.623515607147647 
3.622091688341986 
1.802955631228461 
-0.8085515398792106 
1.395294775705818 
-3.40623762035929 
-0.636922294634528 
0.803011518485806 
-2.076347443348512 
-0.5809078634435026 
4.904871279978908 
0 
-1.803036188431522 
0 
0.9702874968959163 
3.152852116732019 
0.6783993640044731 
-1.527655772838674 
3.181020731439922 
1.590444331132887 
-1.67140459699927 
-0.5908894981072942 
2.126130269665361 
-0.4806804345796378 
-0.5564956505008021 
5.517072096252286 
1.561583514979034 
-1.102685145711248 
2.821172768337872 
2.272130661740358 
-1.169892407802098 
-1.592470803368623 
-0.1980663499581999 
3.716929842255682 
0.3356192260537201 
0.523483580098816 
1.473092490135713 
1.68634438721022 
0 
-3.593724760646239 
0.1024657519103741 
4.258369303213826 
-3.916959160846538 
1.391692490065985 
1.003896603324977 
-0.625048438878674 
-1.146315293169047 
2.039890369921975 
1.372919794897294 
-0.9112470815286429 
-0.6693146543978019 
-2.071952237142168 
-1.108753180721204 
0.3288725266171027 
0.8397981781849219 
0.2712663863573635 
-3.517266957671128 
0.9720702993820924 
-1.024774981389804 
-1.096669896720664 
-3.279840645822512 
0.6279605630355249 
0.1243718125772068 
0.2622793499622698 
0.6530178614408411 
-0.007920944184252808 
2.410973646816804 
-0.8714048371491163 
-3.026082077156003 
-1.258150510827617 
-0.3118917362353361 
2.064235083778749 
-2.246863684904013 
-0.4555598987314083 
3.089662437534159 
-2.084917728506238 
-2.539401351325977 
1.246223738958905 
-1.024241470206719 
0.3634628870874175 
0.3911284340094238 
-0.7602319874637716 
2.877638855701923 
-1.903504635522224 
-0.06474832702919173 
-1.914846364010469 
-1.191676957016437 
-3.601650804935867 
-2.780292546284002 
-1.007478804438427 
-0.3906000811286324 
0.7901465322159961 
0.3981201687055281 
1.868579622538366 
-0.4662342784210307 
2.782697811931168 
2.052823972013792 
-0.05791891743442461 
0.7108078209365984 
-2.700612049516581 
0 
6.074773321626283 
-1.457512020088852 
-1.260357020241535 
-1.604364055674123 
-2.784323908767278 
-1.273232021563303 
-1.294813505902159 
1.632472370956828 
3.927479443432319 
1.241677923458671 
-0.671796521681573 
-1.140522013634099 
-1.096830169823646 
-3.876244660459701 
-0.200868196313462 
-1.049979199038927 
0.2355799977454207 
5.648984151470462 
-2.566233966497182 
-0.3458470120922653 
-2.202988103334675 
0.2177587529560023 
0 
0.04575388003046729 
-0.736219946859631 
-1.665232598587291 
-0.2575675522045762 
0.1865343786754232 
-1.554987457384697 
-0.1469712593758525 
1.200610533765951 
-0.2242285979657879 
-0.01917735113924405 
2.195306156911177 
3.503431215751117 
0.3003881068614321 
0.3577843304065726 
-0.3920109230574627 
-0.5118022467839672 
-0.8142270454013815 
-1.527249743585653 
-0.2409641885557632 
0.5665544653590993 
4.020285005030408 
-2.805263874427459 
-1.67176794326972 
-0.5646506315243018 
-1.283713244040213 
0.5548661776151762 
-1.196159011116264 
1.796980844305061 
-0.7847381113450388 
-0.05844382112134566 
-1.205544313788969 
-3.188361875997315 
3.03101985979787 
2.081138165641111 
-0.895983271679848 
-0.1234902619490672 
0.3682007220443116 
-0.06091416183922557 
0.4555109777267811 
-0.991461334341329 
0.4144459797227845 
-1.175495861370949 
-3.335050208303113 
-0.07246479240824974 
0 
2.493952713978082 
-2.364763124214992 
-1.334831586978797 
2.100611176139629 
-0.5120793361220524 
2.050508891124715 
0.9946787444144876 
0.3496848578873303 
-1.746054703959756 
-2.005912353855279 
3.788919447973726 
-0.5993137857682194 
-0.6009878781730809 
-2.018757900541304 
-0.3470733837950524 
2.277672391734316 
-1.487283869175344 
0.8709412445361153 
-1.780703739932879 
-0.4549619760901674 
-2.866690236061022 
-0.8483287603063261 
1.485753149031963 
2.617933163606658 
0.8706744351232739 
-0.8995520258150093 
1.836360221636936 
0.4904801256530768 
-0.6483211385119959 
0.1374888681264941 
-0.01396120974486782 
2.496798553834932 
-1.416408903173159 
2.983452899764664 
2.697865623944173 
-2.69189355175281 
-1.9171301454454 
1.717738529757814 
0.02063253693386044 
-1.6650427216786 
-1.032772445489443 
-0.4211043098435223 
-0.2589211424480496 
-0.183527697803226 
1.322501254549064 
-1.550758984028048 
1.125421564355973 
-0.2283956249476453 
0 
-1.340921761161981 
-3.710630685984469 
4.197453507504028 
0.6848909321633081 
-0.1027776849728852 
0.1316247871543886 
0.6269019204889424 
0.3316775133225588 
-1.710958472322305 
-0.0792729002030327 
-1.329370275471573 
-0.8009566871187397 
-0.2251701933285022 
1.39816184050622 
2.609627733182719 
1.053804277515448 
-0.02782742443753742 
-0.393873753401068 
-1.58850724425307 
-3.213182828642865 
-0.9278990063387588 
-0.7620854882574533 
-0.309331131802168 
-0.6002083205597388 
-0.2130992425465352 
-2.143735408901236 
1.769797776961353 
3.331437248205127 
0.007652356321476466 
1.012808146873223 
-1.084202172485504e-19 
1.374344597096917 
-1.026147378028622 
1.334811013744905 
-1.223849889276101 
0.4114432383337559 
-0.8859475184660653 
1.3562601570474 
-0.8695301446232602 
0.04192851776122176 
-0.04548808145630412 
-0.9056872749619921 
1.503731466902272 
3.517547508596239 
-2.533048157852616 
-0.4025357400371529 
-2.263635968566598 
0.1842558533939865 
0.9600502248593487 
0 
-1.271460945625059 
-2.02763525547974 
-0.4242765864107815 
-1.769614567384306 
-0.2436430094973248 
1.457438594535444 
2.985411444681956 
2.341139329860872 
-3.00670324346715 
-0.08176838328675065 
-0.07117509371105731 
-1.130722921780117 
-0.7038576850616235 
0 
0.3014683511089754 
-0.09393722559180749 
-1.356655029765901 
-0.6309519362803253 
0.4482474529552182 
-0.9748890417981358 
0.1054412288843968 
-0.09280457204040775 
-0.4992545478762103 
-0.04432408241767767 
-0.7505087678285829 
-0.4223853041274461 
-2.625487323735999 
0.5644863204523995 
-1.433098187092271 
1.991159853360129 
3.211023896605186 
0.01487382674545332 
0.7294783939077144 
0.6196655394130927 
-1.731676343073674 
-1.207916604993729 
-0.4492102207191513 
-1.000589404710444 
-0.2820108005608323 
-1.052975317161943 
-0.4522057546183775 
0.7384979592284558 
1.476870456754951 
3.900212409872544 
-0.2630835729503277 
-2.190059456211175 
0 
3.205388945982848 
2.118285899143459 
0.9901372210616394 
0.2227401117092155 
-2.665519905838526 
0 
1.568494911265506 
-0.0894172459652697 
-1.311792359367161 
-0.5641384085800398 
0.7608447990136203 
-0.2411704710341745 
0.4820410112687112 
-0.6094650938113158 
-0.5887348869670247 
-2.274278060925301 
0.4802461808076238 
-0.8871617034515887 
-1.242417534919841 
0.2543938015848696 
0.2454194425496284 
-0.009496510803794416 
3.720718919815897 
-0.4973253365762514 
1.276308388108928 
0 
0 
-1.498438120071317 
0.6845451319485847 
0 
-1.422823466834982 
-0.4771615063519647 
-0.9220916338778709 
-1.726839752549065 
-0.2078804122194368 
-1.469092596394113 
-0.4766751094408728 
-0.4073446383081165 
1.955978997806867 
0.4165627100085719 
-1.116695152881458 
1.442538405062751 
0.8330902038593807 
-0.298250724279098 
0.008668271017603143 
1.525191150563646 
-0.8620814017845874 
0.3699418920259461 
-1.085061962632217 
-0.5289310328534688 
-0.4837753787487753 
0.1194678070200192 
2.306340837738781 
-0.1039417473181538 
1.124518485021677 
-1.373258011835063 
2.230665182786741 
1.095021247383741 
4.161283664365891 
0.4811099320329284 
-0.3905615276061999 
-3.83876673457473 
